digraph Tree {
node [shape=box] ;
0 [label="X[8] <= 3.5\ngini = 0.4994\nsamples = 8124\nvalue = [4208, 3916]"] ;
1 [label="X[20] <= 3.5\ngini = 0.2764\nsamples = 3308\nvalue = [548, 2760]"] ;
0 -> 1 [labeldistance=2.5, labelangle=45, headlabel="True"] ;
2 [label="X[19] <= 1.5\ngini = 0.2162\nsamples = 584\nvalue = [512, 72]"] ;
1 -> 2 ;
3 [label="gini = 0.0\nsamples = 48\nvalue = [0, 48]"] ;
2 -> 3 ;
4 [label="X[7] <= 0.5\ngini = 0.0855\nsamples = 536\nvalue = [512, 24]"] ;
2 -> 4 ;
5 [label="gini = 0.0\nsamples = 512\nvalue = [512, 0]"] ;
4 -> 5 ;
6 [label="gini = 0.0\nsamples = 24\nvalue = [0, 24]"] ;
4 -> 6 ;
7 [label="X[10] <= 2.0\ngini = 0.0261\nsamples = 2724\nvalue = [36, 2688]"] ;
1 -> 7 ;
8 [label="X[12] <= 0.5\ngini = 0.0088\nsamples = 2700\nvalue = [12, 2688]"] ;
7 -> 8 ;
9 [label="X[10] <= 0.5\ngini = 0.4444\nsamples = 36\nvalue = [12, 24]"] ;
8 -> 9 ;
10 [label="gini = 0.0\nsamples = 12\nvalue = [12, 0]"] ;
9 -> 10 ;
11 [label="gini = 0.0\nsamples = 24\nvalue = [0, 24]"] ;
9 -> 11 ;
12 [label="gini = 0.0\nsamples = 2664\nvalue = [0, 2664]"] ;
8 -> 12 ;
13 [label="gini = 0.0\nsamples = 24\nvalue = [24, 0]"] ;
7 -> 13 ;
14 [label="X[19] <= 1.5\ngini = 0.3648\nsamples = 4816\nvalue = [3660, 1156]"] ;
0 -> 14 [labeldistance=2.5, labelangle=-45, headlabel="False"] ;
15 [label="X[4] <= 3.5\ngini = 0.2091\nsamples = 708\nvalue = [84, 624]"] ;
14 -> 15 ;
16 [label="gini = 0.0\nsamples = 624\nvalue = [0, 624]"] ;
15 -> 16 ;
17 [label="gini = 0.0\nsamples = 84\nvalue = [84, 0]"] ;
15 -> 17 ;
18 [label="X[7] <= 0.5\ngini = 0.2255\nsamples = 4108\nvalue = [3576, 532]"] ;
14 -> 18 ;
19 [label="X[13] <= 1.5\ngini = 0.0476\nsamples = 3444\nvalue = [3360, 84]"] ;
18 -> 19 ;
20 [label="gini = 0.0\nsamples = 36\nvalue = [0, 36]"] ;
19 -> 20 ;
21 [label="X[2] <= 0.5\ngini = 0.0278\nsamples = 3408\nvalue = [3360, 48]"] ;
19 -> 21 ;
22 [label="X[10] <= 0.5\ngini = 0.48\nsamples = 40\nvalue = [24, 16]"] ;
21 -> 22 ;
23 [label="gini = 0.0\nsamples = 24\nvalue = [24, 0]"] ;
22 -> 23 ;
24 [label="gini = 0.0\nsamples = 16\nvalue = [0, 16]"] ;
22 -> 24 ;
25 [label="X[17] <= 1.5\ngini = 0.0188\nsamples = 3368\nvalue = [3336, 32]"] ;
21 -> 25 ;
26 [label="gini = 0.0\nsamples = 3024\nvalue = [3024, 0]"] ;
25 -> 26 ;
27 [label="X[19] <= 6.0\ngini = 0.1687\nsamples = 344\nvalue = [312, 32]"] ;
25 -> 27 ;
28 [label="gini = 0.0\nsamples = 32\nvalue = [0, 32]"] ;
27 -> 28 ;
29 [label="gini = 0.0\nsamples = 312\nvalue = [312, 0]"] ;
27 -> 29 ;
30 [label="X[9] <= 0.5\ngini = 0.439\nsamples = 664\nvalue = [216, 448]"] ;
18 -> 30 ;
31 [label="X[21] <= 1.5\ngini = 0.3333\nsamples = 568\nvalue = [120, 448]"] ;
30 -> 31 ;
32 [label="gini = 0.0\nsamples = 304\nvalue = [0, 304]"] ;
31 -> 32 ;
33 [label="X[3] <= 0.5\ngini = 0.4959\nsamples = 264\nvalue = [120, 144]"] ;
31 -> 33 ;
34 [label="X[14] <= 7.5\ngini = 0.1172\nsamples = 128\nvalue = [120, 8]"] ;
33 -> 34 ;
35 [label="gini = 0.0\nsamples = 120\nvalue = [120, 0]"] ;
34 -> 35 ;
36 [label="gini = 0.0\nsamples = 8\nvalue = [0, 8]"] ;
34 -> 36 ;
37 [label="gini = 0.0\nsamples = 136\nvalue = [0, 136]"] ;
33 -> 37 ;
38 [label="gini = 0.0\nsamples = 96\nvalue = [96, 0]"] ;
30 -> 38 ;
}